id,access,wait,ivt,egress
U1,0.468874187,0.435136959,0.013321309,-0.355319063
U2,-0.008726911,-0.016622219,0.432777004,0.225048549
U3,0.476672605,-0.125533337,1.345243583,-0.294921368
U4,0.49006526,0.452030795,0.012436377,-0.341226461
U5,0.080395586,-0.107940502,0.494699303,-0.261784697
U6,-0.1965048,0.39534044,0.585483481,-0.118866329
U7,0.476014423,0.45329025,0.009360131,-0.304874142
U8,-0.130295439,-0.264132732,0.236973746,-0.255165831
U9,0.07758437,-0.084199868,0.799520008,0.092366514
U10,0.408479128,-0.516772181,-0.252034009,-0.290492448
U11,0.483930629,0.416061516,0.024705714,-0.318358747
U12,-0.169491947,-0.188735791,0.31400534,-0.066914948
U13,0.115898496,-0.074881912,0.354860053,-0.230543989
U14,0.061266222,0.592196101,-0.264440386,0.073234444
U15,-0.336393104,-0.820734878,0.250364038,-0.118960666
U16,0.248030614,-0.301193847,0.314619691,0.148146409
U17,-0.124834119,-0.316712536,0.893783788,-0.336250975
U18,-0.197024619,-0.253327919,1.208425863,-0.592166447
U19,-0.151789755,-0.188781119,1.270734168,-0.588555689
U20,-0.244690682,0.16415863,1.055772684,-0.0027378
U21,-0.043152914,-0.08886897,0.285752992,0.199178895
U22,0.15485394,0.336779975,0.009511791,-0.085619233
U23,-0.189821661,-0.007470562,0.13553264,-0.383599316
U24,-0.202212935,-0.218321686,-0.582704948,-0.233954502
U25,-0.087420094,0.190445872,0.331138989,-0.055627823
U26,-0.176554409,-0.169642407,-0.683784881,-0.207013929
U27,-0.112739316,-0.142161009,-0.718811966,-0.14870995
U28,-0.255179726,-0.163853596,-0.731866051,-0.230990152
U29,-0.098185704,-0.267190584,-0.733642754,-0.196048371
U30,-0.09104959,0.205819311,0.364040661,-0.057221422
U31,0.126639973,-0.338922099,0.184542695,-0.165628605
U32,-0.157978947,-0.187448858,-0.803105156,-0.15681341
U33,0.20208531,0.080024678,0.237316813,0.387732575
U34,0.133259984,-0.169436828,0.171324323,-0.190529171
U35,-0.220888455,0.264570242,0.167595623,0.172523718
U36,0.153096421,0.330092118,-0.006086876,-0.094440878
U37,0.486037729,0.45627059,0.012454399,-0.348892577
U38,0.054692777,-0.412718264,-0.073639624,0.260103204
U39,-0.190058514,0.295970732,0.293979788,-0.221691898
U40,0.383910974,-0.481025201,-0.221967262,-0.294230981
U41,-0.120848616,-0.226400898,0.174874911,0.141749881
U42,0.05656017,-0.127534004,-0.038774047,-0.042526072
U43,0.056660996,0.017649311,0.722680573,-0.250185114
U44,-0.065967413,0.160165449,0.742250571,0.131412931
U45,-0.362548308,-0.34379663,0.101958086,0.201984165
U46,-0.141947619,-0.281065227,0.166392949,0.028567693
U47,0.396876995,-0.06015796,0.020444816,-0.266244688
U48,-0.180438019,-0.215012679,0.895659993,0.18883402
U49,-0.158926576,-0.010399389,0.063076194,-0.189522388
U50,-0.004500127,-0.375913137,0.172747354,0.084215592
U51,0.099729064,-0.299961338,0.264347383,-0.196997881
U52,0.191607812,-0.243802256,0.435299105,-0.194763732
U53,-0.285855979,0.558869992,-0.776366018,0.689906235
U54,0.128593123,-0.140646339,0.167876061,-0.162731083
U55,0.298294641,-0.286243621,0.252091819,-0.318264248
U56,-0.184408116,0.38343966,0.587157717,-0.120322448
U57,-0.105914469,-0.115348662,-0.491893598,-0.079824076
U58,-0.208824542,-0.209404003,-0.710114585,-0.2025053
U59,0.353084583,-0.436574357,0.408828981,-0.091728313
U60,0.142063791,-0.096096988,0.811514944,-0.193413218
U61,0.496628403,0.02879401,-0.228016645,0.208719485
U62,-0.248426302,-0.139308932,-0.706837332,-0.218827684
U63,0.392284682,0.06892595,0.141795795,0.52241772
U64,0.115885,-0.220193923,0.533506502,-0.100132639
U65,-0.22864533,-0.135910046,-0.665514016,-0.272642343
U66,-0.168708534,-0.218000637,0.238752378,-0.439683742
U67,0.082925567,-0.330546557,0.558055952,-0.669508587
U68,0.201382566,-0.283032487,0.134240375,-0.131948533
U69,-0.227214456,-0.260016556,-0.64116636,-0.272908916
U70,0.114443964,0.327604154,-0.188837106,0.186629065
U71,-0.111418755,-0.145483744,-0.655004011,-0.130146928
U72,-0.178098534,0.369457982,0.570078182,-0.110133427
U73,-0.177154054,-0.216093161,0.261531187,-0.444267552
U74,0.126913792,-0.338956076,0.185765734,-0.167354748
U75,-0.024913911,0.006669593,0.028173572,0.00679984
U76,0.199669826,0.194245779,0.025051649,-0.063570079
U77,0.057894701,-0.342304346,0.552144586,-0.672679823
U78,0.217348081,-0.140537406,0.690801466,-0.280868851
U79,0.258255805,-0.293577251,0.58595995,-0.058430022
U80,-0.025837036,0.255097453,0.796338741,0.239149739
U81,-0.085750488,-0.238957337,0.786842517,0.270217304
U82,-0.103991845,-0.143766249,-0.681661237,-0.159232961
U83,0.178089684,0.398550878,0.137168122,0.171994317
U84,-0.088441322,-0.161337564,0.208703124,-0.419566181
U85,0.538427956,0.502187623,0.016666945,-0.476659624
U86,-0.138751529,-0.203464399,-0.376739696,-0.176190622
U87,-0.040753466,-0.074449982,0.747475218,0.168415822
U88,0.000213932,0.367472297,0.088336773,-0.084529302
U89,-0.173941465,-0.180630484,-0.803202127,-0.204275598
U90,0.018725945,0.44830612,0.514798656,0.009812367
U91,-0.200328315,-0.154598225,-0.673256732,-0.203648887
U92,-0.115382016,-0.191045147,-0.672107436,-0.13772211
U93,-0.190728783,-0.333363184,-0.585162611,-0.194633731
U94,-0.049293641,-0.087905923,0.395595712,0.282655996
U95,-0.125702048,-0.178733174,1.220000792,-0.600414404
U96,0.012826304,0.070670193,0.038084266,0.199739415
U97,-0.736448874,-0.000480136,0.090047175,-0.012816896
U98,-0.379159007,-0.321319454,0.115286391,0.199211542
U99,-0.02066946,-0.088919799,1.278407193,-0.119495806
U100,0.2385032,-0.409393859,0.329912165,0.051812195
U101,0.521518152,0.483559788,0.017980411,-0.395352865
U102,-0.218990374,-0.662659577,0.502074436,-0.351079195
U103,0.158154459,-0.183563199,0.137265756,-0.170520968
U104,-0.095245233,0.220915148,0.381679344,-0.063962068
U105,-0.186492728,-0.16691074,-0.733957635,-0.196446385
U106,-0.166015797,0.275421317,0.33218084,-0.207302284
U107,0.715326962,0.487226641,-0.012355189,-0.409991366
U108,-0.269695314,0.397918836,0.081297818,0.091653349
U109,0.227675651,0.154866691,0.057553014,-0.164073472
U110,0.475444181,0.454511396,0.007903967,-0.344964615
U111,0.726878641,0.505214021,-0.007021095,-0.481178622
U112,0.136846392,-0.1748192,0.159786358,-0.147631443
U113,0.470432505,0.00988554,-0.202881094,0.190052578
U114,-0.335855615,-0.80265786,0.260422136,-0.107517857
U115,-0.235434353,-0.155177342,-0.719562358,-0.293723563
U116,0.269968325,-0.35402005,0.149236447,0.020012637
U117,-0.069966444,-0.173474764,0.041798634,-0.066113116
U118,0.092736115,0.320496627,0.227500824,-0.272673438
U119,0.142368435,0.301565526,-0.00360727,-0.095856818
U120,-0.080564262,-0.155994702,-0.730942083,-0.16149177
U121,0.393422544,0.021414121,-0.237274744,0.148560756
U122,0.199607955,-0.261192049,-0.109293298,0.053541887
U123,0.053455124,0.004010226,0.004228595,0.004944238
U124,-0.242823928,0.306050088,0.224971635,-0.190527195
U125,-0.193245993,-0.067195694,-0.543046784,-0.175007615
U126,-0.19843811,-0.201068136,0.288095429,-0.087338761
U127,0.112449272,-0.323773664,0.208824963,-0.189087589
U128,0.495623124,0.447809572,0.021364622,-0.340709923
U129,-0.020053734,0.245860173,0.940555224,0.243448346
U130,0.060377299,-0.136856004,0.458410815,-0.257308876
U131,-0.130749521,0.021905827,0.127028185,-0.095867173
U132,0.535626279,0.467554607,0.029872868,-0.40590225
U133,0.311778809,0.071868188,-0.038952172,-0.059444455
U134,-0.143977752,-0.223211989,0.202067282,-0.195896293
U135,0.060822357,-0.130440613,0.450803042,-0.245686124
U136,-0.107386931,0.01561354,0.097812664,-0.068642982
U137,0.065472814,-0.107754775,0.516722151,-0.240212576
U138,-0.140597094,-0.215290253,0.796926509,0.220459974
U139,0.477008322,0.04229717,-0.236389431,0.207049447
U140,-0.177822367,0.378995929,-0.546983752,0.762829744
U141,-0.128209745,0.301850337,0.450553768,-0.155937243
U142,0.339049696,-0.039940574,0.288938823,0.401469511
U143,0.155968027,-0.173274278,0.181110341,-0.150033062
U144,-0.127751793,-0.740184395,0.330600728,-0.040707186
U145,0.131964909,0.465848492,-0.318385006,0.140009626
U146,0.085928769,-0.504739537,0.823744888,0.259123009
U147,-0.099751757,0.231825904,0.398754788,-0.062545989
U148,-0.110419488,-0.275566259,-0.790777726,-0.221065583
U149,0.160124194,0.323934975,-0.007763563,-0.090836496
U150,0.060004232,-0.330218746,0.464252854,0.006583953
U151,-0.197613395,0.40294474,0.638593507,-0.138501823
U152,-0.095623585,0.194237557,0.329637855,-0.0500855
U153,0.062591507,-0.530323908,0.300835151,-0.195953878
U154,-0.118642498,0.029599124,0.13925756,-0.080878211
U155,-0.030279882,-0.058939961,0.341806424,0.242950544
U156,0.106167105,-0.323602445,0.243487242,-0.209004557
U157,0.337847004,-0.285886012,0.322606767,-0.021507258
U158,0.716319923,0.483297023,-0.031575458,-0.422085412
U159,0.416980644,0.067082106,1.110090497,-0.175546377
U160,-0.112548735,0.266232633,0.452254391,-0.076496342
U161,0.189136468,0.175569959,-0.202274377,0.125705953
U162,-0.17145429,0.302102424,0.337005961,-0.196962561
U163,-0.108537415,-0.164976509,-0.693155165,-0.152194084
U164,-0.20088117,-0.193655034,-0.724638414,-0.190821596
U165,-0.132294177,-0.1712429,0.25163846,-0.434104455
U166,-0.059339958,-0.119424985,0.212381337,-0.372046584
U167,0.391768925,-0.076766901,0.028943678,0.556451634
U168,-0.060851509,-0.32205671,0.914392582,-0.195494707
U169,0.119784801,-0.070904716,0.571048991,-0.31388835
U170,0.057633839,-0.184868639,0.454921941,-0.275728515
U171,0.214678847,-0.307262483,0.144459759,-0.111415571
U172,-0.0237506,0.007093484,0.811175258,0.325026673
U173,0.319555396,0.18684046,-0.131804804,-0.117170561
U174,-0.117496588,-0.218558084,0.190068144,0.153233276
U175,-0.03823119,-0.078774244,0.286324527,0.227349062
U176,-0.201824585,-0.627141991,0.608621057,-0.377004249
U177,-0.204075084,-0.166945474,-0.6312522,-0.252066511
U178,0.466937851,0.417748973,0.011149318,-0.294981318
U179,-0.188392734,-0.3428401,-0.596873387,-0.196774709
U180,-0.152060902,-0.145933188,-0.518986495,-0.175017569
U181,0.104808662,-0.076742306,0.62648515,-0.163820452
U182,0.125210774,-0.342940673,0.196597522,-0.175933219
U183,0.743460043,0.505697081,-0.016973453,-0.510585868
U184,-0.145735064,-0.164399385,0.119711703,0.103150088
U185,-0.139289165,-0.220060629,-0.397931091,-0.178188745
U186,0.196753729,-0.055749698,0.092303647,-0.368987854
U187,-0.152638959,-0.234843806,0.750716641,0.225571847
U188,0.551746687,-0.191923336,0.257145304,0.003668987
U189,-0.178138553,-0.136553185,-0.732920795,-0.193569406
U190,-0.183649708,-0.189928452,1.231064118,-0.571632112
U191,-0.109193815,-0.167368675,-0.722810457,-0.150613803
U192,0.24909738,0.108379644,0.006992104,-0.084358573
U193,0.454524783,0.432563247,0.007604382,-0.287717425
U194,-0.217760172,-0.249395134,-0.611835322,-0.25337255
U195,-0.140454076,0.243657811,0.109179413,-0.046434274
U196,-0.088865759,-0.197744267,0.874781738,-0.31069831
U197,-0.179310819,-0.360232494,-0.533049897,-0.185386208
U198,0.036705368,-0.100921291,0.7979474,0.168368373
U199,-0.287400415,-0.160497323,-0.809081009,-0.241903518
U200,-0.21787313,-0.193666379,-0.695261955,-0.190756793
U201,-0.066865767,-0.132222687,0.298301275,-0.184624322
U202,0.004912705,-0.089076385,-0.117104699,-0.195115536
U203,0.0697209,-0.195231238,-0.542010278,-0.06351176
U204,0.113312998,-0.057321203,0.054715333,-0.26166449
U205,-0.244611651,-0.045638116,-0.22213607,-0.069513835
U206,0.259887457,-0.26124067,0.166973677,-0.13126998
U207,-0.2135396,0.281864311,0.172819794,0.179999315
U208,-0.27634366,-0.133215601,-0.723716695,-0.227898007
U209,0.201119934,-0.274878238,0.134899642,-0.125751377
U210,-0.168700532,-0.20326459,-0.659677477,-0.183980533
U211,-0.216142356,0.265715512,0.169160842,0.175886154
U212,0.263690937,-0.492047516,0.35484179,-0.055656177
U213,-0.141476809,0.431555861,0.040918029,0.039549828
U214,-0.221975996,0.287214992,0.14722382,0.14822772
U215,0.001567309,0.003323423,0.291402898,-0.290317254
U216,0.004683189,0.018046067,0.272405426,-0.32019035
U217,0.258829755,0.092023088,-0.22592696,0.226856138
U218,0.195480109,-0.288910107,0.13911068,-0.139910467
U219,0.152841364,-0.001301171,0.143284828,0.048534602
U220,-0.130907121,0.02000163,0.133639286,-0.092918627
U221,-0.071418152,-0.204415317,-0.57006948,-0.080207769
U222,0.108146172,0.358143245,-0.026688277,-0.089637429
U223,-0.217501019,-0.139848019,-0.664432584,-0.237857252
U224,0.211825709,-0.273167438,-0.106777112,0.027783545
U225,-0.21361149,-0.222545271,0.245677882,-0.200921047
U226,0.251247358,-0.267552804,0.14082198,-0.112176759
U227,-0.175424936,-0.225547858,0.215148478,-0.183141558
U228,-0.066548698,-0.156752672,-0.166742573,0.094074821
U229,-0.176184656,-0.185199893,0.272589191,-0.448695149
U230,-0.104850389,-0.340040544,0.970976169,-0.959167295
U231,0.149926073,0.342255444,-0.007383382,-0.09374321
U232,-0.180440586,-0.218512853,0.273963406,-0.437620519
U233,0.370066246,-0.486212136,-0.214965899,-0.308611235
U234,0.275357159,-0.265700482,0.168190289,-0.119313429
U235,0.250824125,0.526521232,-0.051544701,-0.105636451
U236,0.367081351,-0.108128151,0.099816724,-0.245726626
U237,-0.214520128,-0.197473266,0.274282959,-0.429444145
U238,0.238752756,-0.281462135,0.144407873,-0.124578398
U239,-0.121761031,0.017920271,0.127476891,-0.085729949
U240,0.14568396,0.310462053,-0.004652434,-0.083632884
U241,0.14394442,0.305876478,0.007500905,-0.098641871
U242,-0.217241752,0.262776207,0.176487989,0.191156356
U243,-0.221757394,0.248258861,0.160637832,0.174768303
U244,-0.110883277,-0.441069332,0.846670609,-0.974821118
U245,0.156410038,0.328073095,-0.007444578,-0.120474163
U246,0.065844955,-0.355375082,0.535209018,-0.662149366
U247,-0.224355246,0.258736456,0.169775539,0.161598639
U248,0.12430091,0.00796634,0.026728276,0.32638496
U249,0.165699011,-0.454848358,0.020348876,-0.119875392
U250,-0.096594215,-0.357199984,1.133681328,-1.018570872
U251,0.463450161,0.592364225,-0.058468039,-0.128674162
U252,0.24383872,-0.425763174,0.334573876,0.020012334
U253,-0.334555258,-0.765444154,0.230037414,-0.096179013
U254,0.016627521,-0.078956431,-0.136319836,-0.178288085
U255,-0.127901313,0.014460653,0.105088546,-0.08969274
U256,-0.112494578,0.292703567,0.446739332,-0.126069234
U257,0.031912023,0.222265185,0.190735222,0.12066638
U258,0.333601069,-0.016137293,0.377011827,0.3408169
U259,-0.091416353,0.13862888,0.689261105,0.112359035
U260,0.17936717,0.073952833,-0.035511923,-0.236415463
U261,0.150398745,0.328513242,0.001017018,-0.111698391
U262,0.366855891,0.079814666,-0.042186139,-0.080412058
U263,0.325878952,0.06164082,0.643190959,-0.062525647
U264,-0.151319238,-0.179630649,1.274170014,-0.822269145
U265,-0.253412403,-0.133019649,-0.681980864,-0.218628843
U266,-0.102607598,-0.117286634,-0.61578664,-0.161938182
U267,0.523736233,0.478962566,0.018846916,-0.375056525
U268,0.196514435,-0.284930483,0.141732312,-0.168280425
U269,0.72635053,0.538867206,-0.01871357,-0.504569983
U270,-0.220932205,0.272922859,0.170046109,0.200322141
U271,-0.030883935,-0.056907549,0.446670947,0.342958052
U272,-0.211976823,0.283325154,0.188160912,0.217254789
U273,0.395536338,-0.087449221,0.037531414,-0.291175636
U274,-0.094470143,-0.123801099,-0.678319632,-0.152541658
U275,0.375748499,-0.470276893,-0.185409674,-0.262881993
U276,-0.110039345,-0.088173635,-0.541044281,-0.152335375
U277,-0.132773785,-0.084435418,-0.465243326,-0.125400447
U278,-0.217668208,-0.022440762,-0.606207787,-0.148862358
U279,0.150892696,-0.140374689,0.176935704,-0.145707705
U280,0.795203784,0.198993679,-0.164114767,-0.077751625
U281,-0.170535432,0.37047134,-0.515436794,0.744551675
U282,-0.080783886,0.189187596,0.35772986,-0.069786935
U283,0.138214125,-0.102672328,0.794714823,-0.204995388
U284,-0.114722099,-0.139996169,-0.691909207,-0.14151034
U285,0.415026584,-0.037400673,0.017210115,-0.254286197
U286,0.147879007,0.299258328,-0.006375747,-0.085474549
U287,0.21687663,-0.058962364,0.110845424,-0.38210153
U288,0.244266855,-0.26375169,0.15178853,-0.132852946
U289,0.215620633,-0.279419503,0.135830389,-0.131085105
U290,-0.142385123,-0.183937105,0.13334676,0.104694357
U291,-0.119889409,-0.271520083,-0.718075078,-0.217691351
U292,-0.363626441,-0.744178974,0.227047007,-0.132365297
U293,-0.115093244,-0.263630753,0.729445359,0.262332643
U294,-0.05818227,0.483549822,0.362874105,-0.055635939
U295,0.252476866,-0.315662648,0.560479604,-0.07106458
U296,-0.10521904,-0.24573436,0.710273304,0.242778683
U297,-0.195324586,0.258677976,0.091506863,-0.127086505
U298,-0.157990601,-0.23187153,0.258586562,-0.448978667
U299,-0.118284637,0.023499243,0.125720691,-0.09433778
U300,0.151973525,0.322243309,0.002666038,-0.112984429
U301,0.530414914,0.446705694,0.033879238,-0.342504261
U302,-0.10365139,0.251334839,0.45988867,-0.07366571
U303,0.015986622,0.369167417,0.100393427,-0.094374263
U304,0.415619742,-0.530678939,-0.278156651,-0.283596414
U305,-0.031861331,-0.055440499,0.349181749,-0.131844185
U306,0.235439967,-0.116458283,0.732989617,-0.230168316
U307,-0.183808249,-0.18717508,-0.655903781,-0.182455656
U308,-0.192748401,-0.14579317,-0.665625796,-0.195106351
U309,0.430614946,-0.338180896,0.352000744,-0.176534835
U310,0.041346935,0.334357889,0.090980959,-0.074657257
U311,-0.668389788,-0.383045185,0.169716327,0.337556883
U312,0.106743922,-0.250559915,0.513136391,0.056985711
U313,-0.16826917,-0.186743193,-0.769629,-0.213973041
U314,0.02788048,0.351673509,0.083367617,-0.075006071
U315,-0.211626479,-0.151823605,-0.687160459,-0.235444495
U316,-0.243074163,-0.135538801,-0.726147893,-0.250388735
U317,-0.254274612,-0.323129105,1.168116464,-0.649143041
U318,0.139953592,0.393688032,-0.137822696,0.080839477
U319,0.032720948,-0.213350936,0.395795812,-0.296688433
U320,-0.156956072,-0.21966637,0.207785062,-0.2034124
U321,-0.197242249,-0.13014604,-0.74790456,-0.20120163
U322,-0.104561051,0.351798601,-0.080944284,0.331986822
U323,0.314378564,-0.072303352,0.27136683,0.387385578
U324,-0.116792868,0.253545097,0.421348397,-0.068201677
U325,-0.150301314,-0.203379748,0.231201441,-0.427275818
U326,-0.242439836,0.156303718,0.141667917,-0.454774478
U327,-0.190641157,-0.172266649,-0.683956641,-0.167205254
U328,-0.19838136,-0.211463773,-0.758989859,-0.19745305
U329,0.175266235,-0.264093939,0.155564131,-0.158064976
U330,0.378836325,-0.057579318,0.037597196,-0.28594115
U331,0.50427782,0.460331167,0.020061561,-0.315279588
U332,-0.096176216,0.205449863,0.328591677,-0.049982185
U333,-0.160482334,0.324405269,0.373877381,-0.16040123
U334,0.416387944,0.109866318,-0.029701044,0.461572591
U335,-0.052847092,-0.124880466,0.148660343,-0.208586066
U336,-0.108603388,-0.28104494,-0.766439624,-0.18970586
U337,-0.117226101,0.026107934,0.109213061,-0.079710064
U338,-0.240269117,-0.26404569,0.230234815,-0.212483054
U339,-0.153734352,-0.487982745,0.815261625,-1.014731478
U340,0.460083514,-0.001763057,-0.189541998,0.202485154
U341,-0.191187774,0.385241174,0.573889089,-0.109691457
U342,-0.206896225,0.447007877,-0.135498629,0.21534532
U343,0.553033351,0.745741646,-0.08013147,-0.14525836
U344,0.128776707,-0.303392164,0.201936864,-0.182951875
U345,-0.218963092,-0.133504148,-0.66497574,-0.256368413
U346,0.460275751,-0.010655517,-0.285282719,0.181260978
U347,0.450694904,-0.005781464,-0.258436113,0.180323602
U348,-0.175096079,-0.146720585,-0.738022899,-0.185103212
U349,-0.092908046,0.472943697,0.18725694,0.105358696
U350,0.537566634,0.46914351,0.034628394,-0.404627599
U351,-0.014988171,-0.02710457,0.442388339,0.222246718
U352,-0.166170476,-0.152367199,-0.649547114,-0.178929673
U353,-0.112576604,0.367538144,-0.070729662,0.30062858
U354,-0.218675988,-0.254492808,-0.615518541,-0.268117192
U355,-0.257625171,-0.143812453,-0.696117836,-0.213702134
U356,0.178921912,0.414683266,0.144956869,0.180638595
U357,-0.124124401,0.032036213,0.135343287,-0.090169536
U358,-0.144015664,-0.144833702,1.177347751,-0.474266007
U359,-0.133672155,-0.134325362,1.217017917,-0.516844785
U360,0.346484941,0.078357316,-0.024172745,-0.069958588
U361,0.115686852,-0.176214708,-0.12073839,0.132214077
U362,0.497887917,0.46799039,0.012172756,-0.340494728
U363,-0.203395345,-0.146472798,-0.613774676,-0.246426173
U364,-0.134163684,0.020848801,0.105010574,-0.096820611
U365,-0.200961684,-0.169641824,-0.66839635,-0.179672683
U366,0.468611065,0.016165415,-0.258493499,0.185114371
U367,-0.23169717,-0.26612086,1.251281095,-0.630930249
U368,-0.051812995,-0.088707741,1.015021999,0.411464862
U369,-0.071617245,0.165586713,0.743810442,0.128032945
U370,-0.149056282,-0.178985409,1.386199334,-0.951644794
U371,0.033484407,-0.097274348,0.834443258,0.16011746
U372,-0.153358417,-0.308279383,-0.921880936,-0.210969597
U373,0.405465862,0.020965746,-0.246362503,0.156341351
U374,0.290597333,-0.113114115,0.086161792,-0.110765735
U375,-0.120014431,0.015687838,0.097555545,-0.081576951
U376,-0.223611153,-0.25874559,-0.635208094,-0.25887678
U377,0.253529692,-0.3921892,0.343527926,0.070015394
U378,-0.167404052,0.468879886,0.045016865,0.042404419
U379,-0.177292231,0.36192499,0.558358228,-0.111692818
U380,-0.207244717,-0.246002623,-0.655248986,-0.256427101
U381,0.097207032,-0.314390167,0.554177925,-0.664664785
U382,-0.008875557,0.00166471,0.012264912,-0.001124245
U383,-0.071238153,-0.435276018,0.873435339,-1.036034323
U384,0.17923537,-0.308217625,0.115650695,-0.135360549
U385,-0.08195488,-0.032847799,-0.018493804,0.119041278
U386,0.216533358,-0.272731596,-0.1295178,0.046331588
U387,-0.115322475,-0.288386886,-0.767516241,-0.210216194
U388,0.306431805,0.090165026,-0.028987225,-0.061846077
U389,-0.046662048,-0.237514109,0.493194061,-0.084775278
U390,-0.147145341,-0.190484796,0.856163183,0.20988769
U391,0.031959342,0.370782965,0.100552693,-0.083533089
U392,0.362477492,-0.061012986,0.050812658,-0.300923398
U393,0.339005526,-0.009672209,0.342095724,0.347952963
U394,-0.131337606,0.025370306,0.118407944,-0.102805062
U395,-0.161849369,-0.219449403,0.268607087,-0.444296923
U396,-0.094802509,-0.400025165,1.043007195,-1.067769308
U397,-0.138589393,0.015780193,0.131354967,-0.108134536
U398,0.016069777,0.358894879,0.098793281,-0.075225901
U399,-0.593831561,-0.185721398,0.145158899,-0.044631748
U400,-0.34143633,-0.678785697,0.217404247,-0.132824926
U401,0.241343071,-0.108517475,0.088140606,-0.102313633
U402,0.153696617,0.35324969,0.005497511,-0.056231372
U403,0.246549991,-0.492345534,0.362377538,-0.041005074
U404,0.080661122,-0.341223966,0.548960629,-0.686475925
U405,-0.149646651,-0.184881808,0.234295977,-0.434015379
U406,-0.216603673,0.256078235,0.160970198,0.1827534
U407,-0.239714388,-0.030818172,-0.201949896,-0.065703095
U408,-0.106567196,0.027714814,0.11887729,-0.084989447
U409,-0.179439171,0.382541103,-0.541764342,0.765695934
U410,-0.187271209,-0.203690685,0.268151456,-0.433517898
U411,0.016717397,0.339498711,0.084194332,-0.087144541
U412,0.184404064,-0.090862927,0.209492168,-0.630675968
U413,-0.349007363,-0.815444833,0.275040634,-0.12953011
U414,0.217024763,-0.28469474,0.132830559,-0.15111151
U415,-0.108097215,-0.106865237,0.239360936,0.115742539
U416,-0.102081065,-0.287777391,0.731453955,-0.362491216
U417,0.299181406,-0.116377457,0.085340115,-0.116020661
U418,-0.215916423,0.253145695,0.169814599,0.184870857
U419,-0.197781869,-0.18998732,0.22757647,-0.423479419
U420,-0.163676457,-0.213489054,0.258038459,-0.456318119
U421,-0.215832789,0.181238296,0.141048744,0.165994274
U422,0.160582519,0.324595875,0.002231758,-0.111174341
U423,0.461894744,-0.014808472,-0.218181583,0.207589653
U424,-0.207979846,0.273401071,0.173304523,0.221151246
U425,0.327853082,-0.043584031,0.291195849,0.411134913
U426,0.207127667,-0.25569261,-0.110221,0.049340562
U427,-0.300047581,0.23758133,-0.025041,0.081187133
U428,-0.065629391,-0.109138379,0.105945689,-0.202301523
U429,-0.13841037,0.030808849,0.124256583,-0.107352885
U430,-0.117517003,-0.180492095,0.241895496,-0.427788457
U431,0.235039329,0.172711536,0.019834229,-0.074142974
U432,-0.084118477,-0.427661458,0.903598513,-0.987984538
U433,0.060538159,0.2183529,0.016796679,0.300321118
U434,0.403353496,-0.503154687,-0.232586577,-0.278829641
U435,0.160991734,-0.173222165,0.18524689,-0.149085927
U436,0.115361846,-0.383129145,0.023140358,-0.118014871
U437,0.214530124,-0.229721153,0.20934294,-0.090795706
U438,0.517755609,0.662222257,-0.05661281,-0.027461255
U439,0.086227488,-0.386473492,0.378294465,-0.158343371
U440,-0.115861327,-0.12386304,-0.543507272,-0.099993378
U441,-0.144435852,-0.191870129,0.26395289,-0.430378481
U442,-0.130116468,0.02072639,0.133194076,-0.094206579
U443,-0.185550616,0.298094249,0.301906361,-0.182303233
U444,-0.1554164,-0.211363736,0.238186768,-0.458487355
U445,-0.138358021,-0.220390599,0.252586353,-0.427853627
U446,0.234764807,0.142707159,0.026318668,-0.089019375
U447,-0.052374719,0.304399224,0.339259985,0.038671814
U448,0.269572573,-0.439904318,0.36191631,-0.003226865
U449,-0.116783381,0.009680619,0.100753961,-0.07134071
U450,-0.19401704,-0.197243579,0.270883631,-0.433843376
U451,-0.082887242,-0.151389464,1.278072779,-0.523720942
U452,-0.062749395,-0.275923537,1.147995871,-0.983103427
U453,0.200484424,-0.281795748,0.135181338,-0.137315779
U454,-0.136332487,0.02535396,0.139329792,-0.102256416
U455,0.2619778,-0.258583127,0.16502055,-0.135144828
U456,-0.220346595,0.269403452,0.161870068,0.164076258
U457,-0.216166925,-0.299256212,-0.6643377,-0.226022187
U458,-0.14512536,0.037421218,0.139611887,-0.119009148
U459,0.096442843,-0.132785877,-0.096406845,0.107349251
U460,0.050966895,-0.356143582,0.543443126,-0.678132787
U461,-0.106684195,-0.1049625,1.367563149,-0.795620739
U462,0.145734914,0.328057611,0.010882057,-0.088351333
U463,0.205408429,-0.257005606,0.153393341,-0.148046341
U464,-0.138315622,0.020497921,0.155099617,-0.096122614
U465,0.069646597,0.118813398,0.001553259,0.191981595
U466,0.138797842,0.308251133,-0.011847084,-0.097472481
U467,0.276533042,0.111604351,-0.004029889,-0.074930067
U468,-0.131253326,0.023607225,0.120709712,-0.095660929
U469,0.18858158,-0.294177653,0.125895761,-0.128638658
U470,-0.200550635,-0.205882638,0.251335612,-0.426517654
U471,-0.172671763,0.36312987,-0.497600412,0.728117243
U472,-0.20542571,-0.310543071,1.245331445,-0.893242033
U473,0.230742774,-0.275535737,0.139871579,-0.114404701
U474,0.158501085,0.387052941,0.126792838,0.158016381
U475,-0.217645145,0.259416,0.179112711,0.197723345
U476,0.03223543,-0.448688795,-0.007217468,0.202310944
U477,0.261891395,-0.460936768,0.359249278,-0.017727658
U478,0.262417189,0.373201268,-0.045210317,-0.032992741
U479,0.271936767,-0.114083174,0.089944038,-0.107173222
U480,0.233332663,-0.282537065,0.151522614,-0.142458299
U481,-0.192262456,-0.091000079,-0.624604232,-0.103415893
U482,-0.208483671,-0.245488743,0.251793191,-0.202518394
U483,-0.216453834,0.18737498,0.143938334,0.133580712
U484,0.276249841,-0.116379964,0.093891491,-0.116605087
U485,0.248071409,-0.397139746,0.319468706,0.050625188
U486,0.13055359,0.3530403,-0.002738187,-0.083557398
U487,0.159597884,0.017394268,0.031426915,0.27621692
U488,-0.184181711,0.371774152,-0.510529288,0.75148173
U489,-0.116931795,0.021976648,0.102191145,-0.081251297
U490,0.32238974,-0.05683974,0.280598575,0.403485873
U491,0.141220899,0.301202553,0.003142859,-0.081371301
U492,-0.406430793,-0.834909761,0.248230266,-0.193338795
U493,-0.176462335,0.361759116,-0.514586543,0.725408779
U494,-0.173431573,-0.193505615,0.246023153,-0.423902893
U495,-0.120772244,-0.155908554,1.253752996,-0.583792795
U496,-0.163043116,0.338022987,-0.474478436,0.679534845
U497,0.343089214,-0.092663474,0.010827867,-0.238378157
U498,-0.143296699,0.41232722,0.031766601,0.026319692
U499,0.101667154,-0.192845956,-0.123020345,0.144989005
U500,-0.104790751,-0.208969164,0.271746191,-0.440546759
